{"layers":[{"nodes":{"audiokey":{},"mode":{},"time_signature":{},"loudness":{},"energy":{},"tempo":{},"danceability":{}}},{"nodes":{"0":{"weights":{"audiokey":0.19792474410440306,"mode":0.03241921499327367,"time_signature":0.9184539260211337,"loudness":0.15664047022005126,"energy":0.06271457840869382,"tempo":-0.06901434885980463,"danceability":0.11435166615498348},"bias":0.07892080451780274},"1":{"weights":{"audiokey":0.27312748796760744,"mode":0.03243655284624145,"time_signature":0.35693375819502615,"loudness":0.23382662969206422,"energy":0.10705466235052404,"tempo":-0.05978419768852606,"danceability":-0.0789808323489516},"bias":0.15271049035985038},"2":{"weights":{"audiokey":0.1764037286557778,"mode":0.12943331995626797,"time_signature":0.8344458386856404,"loudness":-0.008800905353487784,"energy":0.19638161598493117,"tempo":0.15323558953639616,"danceability":0.22098376421335925},"bias":0.08151183630580895},"3":{"weights":{"audiokey":0.027224119701209797,"mode":-0.08331169984996546,"time_signature":0.538155571946059,"loudness":0.042192492531605216,"energy":0.26468043742858194,"tempo":0.23399450189979049,"danceability":0.02932327425262418},"bias":0.33636385878528313}}},{"nodes":{"aggressive":{"weights":{"0":-0.848741431869337,"1":-0.3949565009675433,"2":-0.7234183587011566,"3":-0.6257570027916857},"bias":-0.810015519603459},"ambient":{"weights":{"0":-0.876008216839866,"1":-0.3556653425082387,"2":-0.8758501423102991,"3":-0.693539850445928},"bias":-0.7507902517864853},"dramatic":{"weights":{"0":-0.7304443023615882,"1":-0.48783084691391726,"2":-0.5775896637364618,"3":-0.40256300365364694},"bias":-0.8471895972108615},"dreamy":{"weights":{"0":-0.7493688686337805,"1":-0.3686703902289101,"2":-0.8654779166097868,"3":-0.5878131264167317},"bias":-0.8749483695681463},"intense":{"weights":{"0":-0.9181072207835191,"1":-0.3214326111521726,"2":-0.7317020634226629,"3":-0.5232142897634608},"bias":-0.9613218865937114},"funky":{"weights":{"0":-0.4811798743442712,"1":-0.19991723492428237,"2":-0.546749668417805,"3":-0.13453204020316403},"bias":-0.2833766376834048},"happy":{"weights":{"0":-0.4964995242603948,"1":-0.1786292813956285,"2":-0.5792517403982095,"3":-0.4145999429908602},"bias":-0.6778511431362353},"romantic":{"weights":{"0":-0.6524687970375694,"1":-0.5131514149345966,"2":-0.8577343740531679,"3":-0.4411491616837977},"bias":-0.6812788741544047},"laid-back":{"weights":{"0":-0.9387541137318034,"1":-0.6401975452679546,"2":-0.5822646355881211,"3":-0.5323428033202549},"bias":-0.7366307732286977},"relaxing":{"weights":{"0":-0.6185092379944545,"1":-0.16973940349820482,"2":-0.4255779224252621,"3":-0.3897433872718175},"bias":-0.7150237339853952},"party music":{"weights":{"0":-0.2069118407804721,"1":-0.11569247266921079,"2":-0.3220429558386347,"3":0.03215600483035577},"bias":-0.14450771225091175},"sad":{"weights":{"0":-0.672151943685022,"1":-0.5110382443489523,"2":-0.6159697790674566,"3":-0.5448059699799636},"bias":-1.0836705587032749},"smooth":{"weights":{"0":-0.5475603516304455,"1":-0.31575279701040015,"2":-0.7338286269857839,"3":-0.46857843775993363},"bias":-0.6412344653527614}}}]}